{"Optimizer":{"Beta1":0.9,"Beta2":0.999,"Learning Rate":0.01,"Decay":5.0E-5,"Epsilon":1.0E-7,"Name":"Adam Optimizer"},"Network":[{"Biases":[[-0.013065268,0.016581306,-0.0011816404,-0.006801782,0.006663831,-0.004607198,-0.0133425845,-0.013467174,0.0069377315,-0.0015957343,-0.0013370157,0.010777437,-0.011268258,-0.007306777,-0.0038487979,9.4351586E-4],[-4.217145E-4,-0.002868872,-6.16264E-4,-0.0010730528,-0.0071960436,-0.00812993,0.0027451634,-0.008909151,-0.011573553,-0.0031229225,-0.0015766701,0.022567233,-0.0070470027,0.009432607,0.007471883,-0.011889449]],"Weights":[[-0.013065268,0.016581306,-0.0011816404,-0.006801782,0.006663831,-0.004607198,-0.0133425845,-0.013467174,0.0069377315,-0.0015957343,-0.0013370157,0.010777437,-0.011268258,-0.007306777,-0.0038487979,9.4351586E-4],[-4.217145E-4,-0.002868872,-6.16264E-4,-0.0010730528,-0.0071960436,-0.00812993,0.0027451634,-0.008909151,-0.011573553,-0.0031229225,-0.0015766701,0.022567233,-0.0070470027,0.009432607,0.007471883,-0.011889449]],"WeightRegular2":0.0,"BiasRegular2":0.0,"BiasRegular1":0.0,"WeightRegular1":0.0,"Name":"LayerDense"},{"Name":"ActivationReLU"},{"Biases":[[0.0077325297,-0.011838807,-0.026591722,0.0060631954,-0.017558906,0.0045093447,-0.006840109,0.016595507],[0.010685093,-0.004533858,-0.006878376,-0.012140773,-0.004409226,-0.0028035548,-0.0036469353,0.0015670386],[0.0057852147,0.0034965447,-0.0076414393,-0.014377914,0.013645318,-0.0068944916,-0.0065229363,-0.005211893],[-0.018430695,-0.00477974,-0.004796558,0.006203583,0.006984571,3.770889E-5,0.009318483,0.0033996499],[-1.5682112E-4,0.0016092818,-0.0019065349,-0.003948495,-0.0026773354,-0.011280113,0.002804417,-0.009931236],[0.008416313,-0.0024945857,4.949498E-4,0.0049383678,0.0064331447,-0.015706234,-0.0020690367,0.008801789],[-0.016981058,0.0038728046,-0.022555642,-0.010225068,3.8630553E-4,-0.016567152,-0.009855107,-0.01471835],[0.01648135,0.0016422775,0.005672903,-0.002226751,-0.0035343175,-0.01616474,-0.0029183736,-0.007614922],[0.008579239,0.011411018,0.014665787,0.00852552,-0.005986539,-0.011158969,0.0076666316,0.003562928],[-0.017685384,0.003554818,0.008145198,5.892559E-4,-0.0018505367,-0.008076484,-0.014465347,0.00800298],[-0.0030911446,-0.0023346664,0.017327212,0.006845011,0.00370825,0.0014206179,0.015199948,0.017195893],[0.009295051,0.005822246,-0.02094603,0.0012372191,-0.0013010695,9.395323E-4,0.009430461,-0.027396772],[-0.0056931204,0.0026990434,-0.004668455,-0.014169061,0.0086896345,0.002768719,-0.009711046,0.0031481718],[0.008215857,5.292646E-5,0.008005648,7.8260177E-4,-0.00395229,-0.011594204,-8.5930765E-4,0.0019429292],[0.008758327,-0.0011510747,0.004574156,-0.00964612,-0.007826291,-0.0011038929,-0.010546285,0.008202478],[0.0046313033,0.0027909577,0.003389041,0.020210436,-0.004688642,-0.022014413,0.001993002,-5.060354E-4]],"Weights":[[0.0077325297,-0.011838807,-0.026591722,0.0060631954,-0.017558906,0.0045093447,-0.006840109,0.016595507],[0.010685093,-0.004533858,-0.006878376,-0.012140773,-0.004409226,-0.0028035548,-0.0036469353,0.0015670386],[0.0057852147,0.0034965447,-0.0076414393,-0.014377914,0.013645318,-0.0068944916,-0.0065229363,-0.005211893],[-0.018430695,-0.00477974,-0.004796558,0.006203583,0.006984571,3.770889E-5,0.009318483,0.0033996499],[-1.5682112E-4,0.0016092818,-0.0019065349,-0.003948495,-0.0026773354,-0.011280113,0.002804417,-0.009931236],[0.008416313,-0.0024945857,4.949498E-4,0.0049383678,0.0064331447,-0.015706234,-0.0020690367,0.008801789],[-0.016981058,0.0038728046,-0.022555642,-0.010225068,3.8630553E-4,-0.016567152,-0.009855107,-0.01471835],[0.01648135,0.0016422775,0.005672903,-0.002226751,-0.0035343175,-0.01616474,-0.0029183736,-0.007614922],[0.008579239,0.011411018,0.014665787,0.00852552,-0.005986539,-0.011158969,0.0076666316,0.003562928],[-0.017685384,0.003554818,0.008145198,5.892559E-4,-0.0018505367,-0.008076484,-0.014465347,0.00800298],[-0.0030911446,-0.0023346664,0.017327212,0.006845011,0.00370825,0.0014206179,0.015199948,0.017195893],[0.009295051,0.005822246,-0.02094603,0.0012372191,-0.0013010695,9.395323E-4,0.009430461,-0.027396772],[-0.0056931204,0.0026990434,-0.004668455,-0.014169061,0.0086896345,0.002768719,-0.009711046,0.0031481718],[0.008215857,5.292646E-5,0.008005648,7.8260177E-4,-0.00395229,-0.011594204,-8.5930765E-4,0.0019429292],[0.008758327,-0.0011510747,0.004574156,-0.00964612,-0.007826291,-0.0011038929,-0.010546285,0.008202478],[0.0046313033,0.0027909577,0.003389041,0.020210436,-0.004688642,-0.022014413,0.001993002,-5.060354E-4]],"WeightRegular2":0.0,"BiasRegular2":0.0,"BiasRegular1":0.0,"WeightRegular1":0.0,"Name":"LayerDense"},{"Name":"ActivationELU"},{"Biases":[[-0.0051751905,-0.009788298,-0.004391895],[0.0018133842,-0.005028167,0.024124537],[-0.009605044,-0.007931173,-0.0228862],[0.0025148443,-0.020164065,-0.0053945463],[-0.0027567053,-0.007097279,0.017388726],[0.0099439435,0.013191368,-0.008824188],[0.01128594,0.0049600094,0.007714059],[0.010294388,-0.009087632,-0.004243176]],"Weights":[[-0.0051751905,-0.009788298,-0.004391895],[0.0018133842,-0.005028167,0.024124537],[-0.009605044,-0.007931173,-0.0228862],[0.0025148443,-0.020164065,-0.0053945463],[-0.0027567053,-0.007097279,0.017388726],[0.0099439435,0.013191368,-0.008824188],[0.01128594,0.0049600094,0.007714059],[0.010294388,-0.009087632,-0.004243176]],"WeightRegular2":0.0,"BiasRegular2":0.0,"BiasRegular1":0.0,"WeightRegular1":0.0,"Name":"LayerDense"},{"Name":"ActivationSoftMaxCCE"}],"Name":"TesterModel"}