{"Optimizer":{"Beta1":0.9,"Beta2":0.999,"Learning Rate":0.01,"Decay":5.0E-5,"Epsilon":1.0E-7,"Name":"Adam Optimizer"},"Network":[{"Biases":[[-0.013065268,0.016581306,-0.0011816404,-0.006801782,0.006663831,-0.004607198,-0.0133425845,-0.013467174,0.0069377315,-0.0015957343,-0.0013370157,0.010777437,-0.011268258,-0.007306777,-0.0038487979,9.4351586E-4],[-4.217145E-4,-0.002868872,-6.16264E-4,-0.0010730528,-0.0071960436,-0.00812993,0.0027451634,-0.008909151,-0.011573553,-0.0031229225,-0.0015766701,0.022567233,-0.0070470027,0.009432607,0.007471883,-0.011889449]],"Weights":[[-0.013065268,0.016581306,-0.0011816404,-0.006801782,0.006663831,-0.004607198,-0.0133425845,-0.013467174,0.0069377315,-0.0015957343,-0.0013370157,0.010777437,-0.011268258,-0.007306777,-0.0038487979,9.4351586E-4],[-4.217145E-4,-0.002868872,-6.16264E-4,-0.0010730528,-0.0071960436,-0.00812993,0.0027451634,-0.008909151,-0.011573553,-0.0031229225,-0.0015766701,0.022567233,-0.0070470027,0.009432607,0.007471883,-0.011889449]],"WeightRegular2":0.0,"BiasRegular2":0.0,"BiasRegular1":0.0,"WeightRegular1":0.0,"Name":"LayerDense"},{"Name":"ActivationReLU"},{"Biases":[[0.0077325297,-0.011838807,-0.026591722],[0.0060631954,-0.017558906,0.0045093447],[-0.006840109,0.016595507,0.010685093],[-0.004533858,-0.006878376,-0.012140773],[-0.004409226,-0.0028035548,-0.0036469353],[0.0015670386,0.0057852147,0.0034965447],[-0.0076414393,-0.014377914,0.013645318],[-0.0068944916,-0.0065229363,-0.005211893],[-0.018430695,-0.00477974,-0.004796558],[0.006203583,0.006984571,3.770889E-5],[0.009318483,0.0033996499,-1.5682112E-4],[0.0016092818,-0.0019065349,-0.003948495],[-0.0026773354,-0.011280113,0.002804417],[-0.009931236,0.008416313,-0.0024945857],[4.949498E-4,0.0049383678,0.0064331447],[-0.015706234,-0.0020690367,0.008801789]],"Weights":[[0.0077325297,-0.011838807,-0.026591722],[0.0060631954,-0.017558906,0.0045093447],[-0.006840109,0.016595507,0.010685093],[-0.004533858,-0.006878376,-0.012140773],[-0.004409226,-0.0028035548,-0.0036469353],[0.0015670386,0.0057852147,0.0034965447],[-0.0076414393,-0.014377914,0.013645318],[-0.0068944916,-0.0065229363,-0.005211893],[-0.018430695,-0.00477974,-0.004796558],[0.006203583,0.006984571,3.770889E-5],[0.009318483,0.0033996499,-1.5682112E-4],[0.0016092818,-0.0019065349,-0.003948495],[-0.0026773354,-0.011280113,0.002804417],[-0.009931236,0.008416313,-0.0024945857],[4.949498E-4,0.0049383678,0.0064331447],[-0.015706234,-0.0020690367,0.008801789]],"WeightRegular2":0.0,"BiasRegular2":0.0,"BiasRegular1":0.0,"WeightRegular1":0.0,"Name":"LayerDense"},{"Name":"ActivationSoftMaxCCE"}],"Name":"TesterModel"}